{
  "name": "Name",
  "n": 10,
  "m": 10,
  "map_input_size": 1,
  "a": 1.0,
  "b": 1.0,
  "gamma": 0.5,
  "train_iterations": 100,
  "learning_rate_base": 0.1,
  "gauss_width_squared_base": 10000.0,
  "time_constant": 200.0,
  "map_weights": {
    "n": 10,
    "m": 10,
    "map_input_size": 1,
    "a": 1.0,
    "b": 1.0,
    "gamma": 0.5,
    "som": {
      "v": 1,
      "dim": [
        10,
        10,
        1
      ],
      "data": [
        0.0010742435,
        -4.7613873,
        -9.4551115,
        -14.130852,
        -18.735373,
        -23.268713,
        -27.792114,
        -32.23389,
        -36.5963,
        -40.89041,
        10.58583,
        5.823118,
        1.0867213,
        -3.6109347,
        -8.248318,
        -12.846878,
        -17.382008,
        -21.851517,
        -26.265257,
        -30.600515,
        21.204302,
        16.401834,
        11.6731825,
        6.9509134,
        2.2652779,
        -2.3536105,
        -6.9330773,
        -11.468949,
        -15.928352,
        -20.307787,
        31.876886,
        27.055641,
        22.275915,
        17.522322,
        12.841291,
        8.166258,
        3.5452983,
        -0.996065,
        -5.5159917,
        -9.934866,
        42.56023,
        37.701702,
        32.914444,
        28.124804,
        23.388857,
        18.705683,
        14.046848,
        9.45941,
        4.9013286,
        0.40370312,
        53.217136,
        48.37819,
        43.52674,
        38.732983,
        33.975975,
        29.246105,
        24.550245,
        19.93296,
        15.335313,
        10.800479,
        63.893013,
        59.006577,
        54.165592,
        49.345566,
        44.55997,
        39.800667,
        35.081688,
        30.395067,
        25.778883,
        21.189102,
        74.527,
        69.66407,
        64.78234,
        59.940613,
        55.12446,
        50.32251,
        45.57221,
        40.87399,
        36.192722,
        31.57155,
        85.14809,
        80.275314,
        75.37073,
        70.493324,
        65.665504,
        60.853485,
        56.057995,
        51.316647,
        46.592937,
        41.940525,
        95.74976,
        90.84918,
        85.924515,
        81.033844,
        76.18154,
        71.33113,
        66.50939,
        61.737747,
        57.004837,
        52.29359
      ]
    },
    "context": {
      "v": 1,
      "dim": [
        10,
        10,
        1
      ],
      "data": [
        0.20089388,
        -7.6991687,
        -15.60169,
        -23.543179,
        -31.475983,
        -39.415554,
        -47.35117,
        -55.260616,
        -63.160034,
        -71.03275,
        -0.13955152,
        -8.052807,
        -15.972432,
        -23.930065,
        -31.878998,
        -39.80568,
        -47.76811,
        -55.67785,
        -63.588314,
        -71.46847,
        -0.528537,
        -8.438102,
        -16.357103,
        -24.324823,
        -32.266697,
        -40.214134,
        -48.169544,
        -56.100254,
        -63.997498,
        -71.87623,
        -0.91316545,
        -8.800199,
        -16.73926,
        -24.71838,
        -32.65134,
        -40.605885,
        -48.5649,
        -56.499775,
        -64.41679,
        -72.306625,
        -1.2838751,
        -9.216244,
        -17.129873,
        -25.086569,
        -33.04806,
        -40.99649,
        -48.940678,
        -56.901684,
        -64.80496,
        -72.687225,
        -1.6795385,
        -9.594017,
        -17.52428,
        -25.471771,
        -33.44385,
        -41.387814,
        -49.3289,
        -57.274757,
        -65.18717,
        -73.088264,
        -2.0752118,
        -9.9814625,
        -17.921738,
        -25.86953,
        -33.820606,
        -41.76659,
        -49.71009,
        -57.656376,
        -65.55067,
        -73.45387,
        -2.4823408,
        -10.399859,
        -18.317875,
        -26.262524,
        -34.215725,
        -42.156494,
        -50.095257,
        -58.03223,
        -65.92374,
        -73.80025,
        -2.9155784,
        -10.796532,
        -18.722815,
        -26.646929,
        -34.606583,
        -42.53458,
        -50.454468,
        -58.369026,
        -66.283585,
        -74.1592,
        -3.3230326,
        -11.221765,
        -19.126606,
        -27.064743,
        -34.98081,
        -42.903923,
        -50.83037,
        -58.734768,
        -66.60543,
        -74.48418
      ]
    }
  },
  "is_training": false
}